tree
version=v4
num_class=1
num_tree_per_iteration=1
label_index=0
max_feature_idx=49
objective=binary sigmoid:1
feature_names=Column_0 Column_1 Column_2 Column_3 Column_4 Column_5 Column_6 Column_7 Column_8 Column_9 Column_10 Column_11 Column_12 Column_13 Column_14 Column_15 Column_16 Column_17 Column_18 Column_19 Column_20 Column_21 Column_22 Column_23 Column_24 Column_25 Column_26 Column_27 Column_28 Column_29 Column_30 Column_31 Column_32 Column_33 Column_34 Column_35 Column_36 Column_37 Column_38 Column_39 Column_40 Column_41 Column_42 Column_43 Column_44 Column_45 Column_46 Column_47 Column_48 Column_49
feature_infos=[-0.46613917026595036:20.73896299566843] [-4.0997210223078504:4.3103668913947075] [-1.5383672297341564:4.7309838740689045] [-1.0535093402258744:7.5667981220861371] [-17.445811122315796:2.2828157210168847] [-7.2267531711253747:7.7892718742317664] [-8.8047669065854279:6.7276900506898762] [-1.7893422628597537:1.9594788737084257] [-1.0541035475571161:7.5686496232856548] [-1.0526439510427574:7.5641013187428134] [-1.1387271609759848:6.4490041899933699] [-2.058553045036029:1.3717601194750988] [-1.3837373165559426:5.1732905453834812] [-3.0841534929367156:2.2953494248919175] [-8.7910086125516678:6.714491666942985] [-5.9856230641046038:6.3283844881223414] [-4.8767677115694861:4.405956102875737] [-2.7395355406864041:2.4131696328437666] [-1.9336716187432983:1.2944867666679696] [-2.1117673819482938:13.473887167343717] [-1.0542677916979875:7.5691641854476428] [-7.3168165392583493:1.9170140118104069] [-1.2225399923898279:13.903908594728128] [-8.79237334893336:6.7159862620327067] [-2.3580035636366876:4.964236807826425] [-1.7373312805459464:2.4132139583814749] [-5.595881701889736:4.3149499693233251] [-8.7981669815908781:6.7214244608362863] [-3.4505958428088697:3.3017593322821903] [-1.8318952979904557:7.2826433464125557] [-8.792475320493546:6.7159761920446481] [-8.7911362385210037:6.7144983412798416] [-3.6482238575406076:2.0215929041380747] [-1.0541815229113622:7.5688946834627409] [-6.2947920934346078:6.5639349805801297] [-1.0539586614870184:7.5681925276874917] [-8.7923785018351133:6.7159839841667308] [-3.0440633474967602:2.2824889933942925] [-3.1918944321859186:2.4452188746873529] [-3.5831924587416273:2.5581380095468802] [-1.9670572941703051:7.547140476119063] [-0.48392382610803358:12.378057267454391] [-7.6774556599034769:7.4383661430718258] [-2.0781182305373505:7.0790727018964379] [-5.1392824106423438:2.1917538474607179] [-26.432213031776655:4.2254577160142395] [-0.70147025625377868:4.9073506293036298] [-2.029667926296788:6.1464806124172] [-2.2693891433629108:3.4745822296162481] [-0.51526235319867142:12.296753848079513]
tree_sizes=3334 3447 3438 3432 3448 3457

Tree=0
num_leaves=31
num_cat=0
split_feature=17 5 45 42 45 2 13 18 3 31 39 29 49 37 44 3 18 18 41 21 1 20 35 1 6 42 0 48 22 48
split_gain=10.7419 13.4259 13.3111 12.8371 11.5259 11.7014 10.376 9.74847 10.2944 9.45942 10.3796 10.8464 8.5632 8.19632 8.0373 10.0371 9.35835 7.99604 8.00046 9.45323 7.7427 7.7196 8.51382 7.60334 7.30271 7.20594 9.08441 6.85008 9.84658 7.44128
threshold=0.94965632580743453 0.91196544033576499 0.38329788067616566 3.5462361867940762 -0.85230650544604214 0.1101392483484047 0.25170782071074671 1.1502490481825027 -0.62452736083734406 0.06466332448202354 -0.48573779943048301 1.0629040963548084 -0.48094041036143009 1.6309214865450843 0.46263930094362327 -0.2860287571511701 1.1190568088436461 1.0835086027154932 -0.42800464395815369 1.0791750488951251 -0.21732473687329792 -0.81612904726032143 0.6675377178977987 0.39944747378650075 -0.078925718634137845 0.25207859649792941 0.16062258648556554 -0.10911142613941895 0.29832083475121035 -0.67102635542785405
decision_type=2 2 2 2 2 2 2 2 2 2 2 2 2 2 2 2 2 2 2 2 2 2 2 2 2 2 2 2 2 2
left_child=1 4 27 9 5 -1 -4 13 -9 14 21 12 -12 17 -2 16 -16 18 20 -20 -6 -11 23 -23 -7 -14 -27 29 -29 -3
right_child=3 2 6 -5 7 24 -8 8 -10 10 11 -13 25 -15 15 -17 -18 -19 19 -21 -22 22 -24 -25 -26 26 -28 28 -30 -31
leaf_value=0.12782163402166011 0.13659213364459935 0.082487928332335106 0.099754201169993229 0.078105701033818503 0.089456762127803804 0.083279662174086194 0.13743286549917244 0.098572933804870297 0.13973102285188393 0.076777306617848817 0.094776995927604996 0.08862664548851748 0.13510476910013575 0.11861775093523788 0.075203839842763603 0.13418043081400871 0.11862834225785526 0.08105183187247568 0.10514359122166984 0.13621682885572428 0.1035338648633669 0.10081746356728082 0.072497986068744233 0.12768498132468489 0.11750035538644646 0.10473484470084003 0.13679581728407486 0.10535387832368395 0.0645283215506149 0.11300880563795433
leaf_weight=39.140025615692139 25.179252147674561 14.957971572875978 31.66103982925415 8.4761838912963849 59.333287239074707 10.221280574798586 7.2296862602233878 8.2268843650817889 13.212874889373778 9.722681522369383 9.4733819961547834 10.221280574798582 29.168044567108154 32.15963888168335 7.4789857864379909 10.470580101013182 8.4761838912963849 13.212874889373778 471.17610454559326 7.9775848388671866 86.756235122680664 26.425749778747559 5.2352900505065909 13.462174415588377 10.221280574798582 25.179252147674561 10.470580101013182 7.2296862602233913 21.190459728240967 12.215676784515379
leaf_count=157 101 60 127 34 238 41 29 33 53 39 38 41 117 129 30 42 34 53 1890 32 348 106 21 54 41 101 42 29 85 49
internal_value=0.105965 0.104487 0.0938901 0.11221 0.105837 0.118381 0.107297 0.104736 0.124179 0.113877 0.109727 0.116289 0.120314 0.104084 0.124739 0.112631 0.0978363 0.103329 0.103843 0.105729 0.0977228 0.0996673 0.10519 0.110121 0.10027 0.124205 0.114654 0.0846007 0.074438 0.0960778
internal_weight=1045.56 846.123 94.4845 199.44 751.638 59.5826 38.8907 692.055 21.4398 190.963 139.358 84.5125 74.2913 670.616 51.605 26.4257 15.9552 638.456 625.243 479.154 146.09 54.8459 45.1232 39.8879 20.4426 64.8179 35.6498 55.5938 28.4201 27.1736
internal_count=4194 3394 379 800 3015 239 156 2776 86 766 559 339 298 2690 207 106 64 2561 2508 1922 586 220 181 160 82 260 143 223 114 109
is_linear=0
shrinkage=1


Tree=1
num_leaves=31
num_cat=0
split_feature=16 10 45 8 17 25 20 3 20 4 16 28 7 35 45 9 40 5 5 28 45 37 48 40 29 3 16 31 10 2
split_gain=13.6387 12.4847 12.4663 11.2131 12.251 11.1322 10.6617 9.9119 10.1899 10.1149 9.50182 8.75023 8.71832 8.52549 10.0793 8.46917 9.53842 8.14034 8.55628 8.90134 8.01449 8.05473 7.87434 7.64324 9.54835 7.57345 10.4679 7.50739 7.03459 12.3042
threshold=0.16162134053381524 1.3879202504318207 -0.85230650544604214 -0.87141789537467529 1.2930132870482651 -0.37470981925787333 0.97693459595168353 3.2175978541719306 -0.86298847799349832 1.0548336764137458 0.0095396253252719096 -0.2474362520727692 1.3450522634808735 -0.86270775738148797 -0.036307609836207295 -0.81020901198948436 -0.76057475775577943 0.36817235813157206 0.20446952424590678 -1.3315108475383075 -0.081376951037969339 -0.18831283239063562 -0.96086546254155636 0.56420979102182178 0.1268710606431851 -0.71680420089872598 0.83348219627730058 0.34202528431365181 -0.44651420873680397 0.15818178484258819
decision_type=2 2 2 2 2 2 2 2 2 2 2 2 2 2 2 2 2 2 2 2 2 2 2 2 2 2 2 2 2 2
left_child=2 7 5 15 10 -1 11 8 13 12 17 -7 23 -2 -15 -4 -17 18 19 -5 -12 -22 -20 24 -10 -3 -27 -11 -19 -30
right_child=1 25 3 4 -6 6 -8 -9 9 27 20 -13 -14 14 -16 16 -18 28 22 -21 21 -23 -24 -25 -26 26 -28 -29 29 -31
leaf_value=0.026793571075593117 0.0075670814069946661 0.031954985109612158 0.029992558967327696 -0.02191568169737421 0.032569186677523475 -0.0039491817073918746 -0.017738335342582085 -0.034742889182012925 0.0066521552766027241 0.011024953618789676 -0.034069658714919716 0.033676963972239016 0.020096925256694001 0.003516302296477244 -0.044165942194602979 0.018228456506657529 -0.032188743313698226 -0.018444178398459705 0.040453618248747242 -0.0019446858246707573 -0.028123527924577368 0.0012383832891292989 0.0044369620605310325 0.019610974947769894 -0.0041060224127322572 0.031148430375783909 -0.0036777849308481558 -0.025860882194631965 0.0066905743827303989 -0.016844809136278439
leaf_weight=21.169327065348625 8.7236640751361865 19.440653339028358 13.460975751280786 20.945646941661835 6.4758677482604972 11.216270953416826 16.199983939528465 5.4827473163604727 182.20362718403339 6.2269227802753475 17.702062129974365 9.464588135480879 30.896789714694023 5.7337622791528746 10.475646078586575 6.731551855802536 4.9862924814224225 58.849398225545883 6.2332637757062939 248.58105996251106 11.966485276818274 23.187113538384438 24.681007295846939 23.927655458450317 123.64095629751682 10.713650479912756 22.18111515045166 15.95215058326721 40.643760308623314 37.40810427069664
leaf_count=85 35 78 54 84 26 45 65 22 731 25 71 38 124 23 42 27 20 236 25 997 48 93 99 96 496 43 89 64 163 150
internal_value=0 0.00381926 -0.00306824 -0.00454319 -0.00554657 0.00999265 -2.44926e-05 0.00204285 0.00262856 0.00385851 -0.0061215 0.0138911 0.00508698 -0.0155622 -0.0279007 0.0145906 -0.00383375 -0.00463561 -0.00184697 -0.00358305 -0.0180461 -0.00917503 0.012833 0.0036151 0.00229406 0.0174891 0.00816075 -0.0153466 -0.010676 -0.00462173
internal_weight=1045.5 465.599 579.903 521.853 496.674 58.0502 36.8808 413.264 407.781 382.848 490.198 20.6809 360.669 24.9331 16.2094 25.1788 11.7178 437.342 300.441 269.527 52.8557 35.1536 30.9143 329.772 305.845 52.3354 32.8948 22.1791 136.901 78.0519
internal_count=4194 1868 2326 2093 1992 233 148 1658 1636 1536 1966 83 1447 100 65 101 47 1754 1205 1081 212 141 124 1323 1227 210 132 89 549 313
is_linear=0
shrinkage=0.03


Tree=2
num_leaves=31
num_cat=0
split_feature=16 1 45 8 17 25 16 24 4 23 31 9 40 14 8 14 10 41 29 14 22 23 48 1 3 38 25 30 1 2
split_gain=12.836 12.2509 11.7656 10.5777 11.6264 10.5222 8.9744 10.2089 8.76896 8.59206 8.23829 8.03239 9.05521 8.02182 13.4043 7.90994 8.59035 7.85356 7.83465 6.77921 8.06876 7.66638 6.70748 7.54146 7.83155 6.6979 6.56749 6.25147 8.69259 6.12979
threshold=0.16162134053381524 1.7519433615773246 -0.85230650544604214 -0.87141789537467529 1.2930132870482651 -0.37470981925787333 0.0095396253252719096 0.37683988598825896 1.0548336764137458 1.3583806869597825 0.34202528431365181 -0.81020901198948436 -0.76057475775577943 1.2100049069630339 0.57488495316983979 1.2537495396153786 0.14624630634696736 -0.45617108781948512 1.4401311421574003 -0.38483912911243012 -0.8841226325590571 -0.37839191475725437 -0.92836217240801167 -1.0575632095448613 0.57501712349343448 1.1892308278858199 -0.018677605681632205 1.3298809745380147 -0.27298510347401189 -0.4527143746963958
decision_type=2 2 2 2 2 2 2 2 2 2 2 2 2 2 2 2 2 2 2 2 2 2 2 2 2 2 2 2 2 2
left_child=2 8 5 11 6 -1 13 17 9 15 -10 -4 -13 27 -15 18 -17 -8 19 21 -21 -2 -7 -24 -25 -11 -20 28 -5 -29
right_child=1 -3 3 4 -6 22 7 -9 10 25 -12 12 -14 14 -16 16 -18 -19 26 20 -22 -23 23 24 -26 -27 -28 29 -30 -31
leaf_value=0.026071908311170035 -0.0089369681150324749 0.018817583384287136 0.029205346508044957 -0.0072043234859769508 0.031784978447425553 -0.023686448500337624 0.017314836711048352 -0.046073077583667105 0.011352623262743666 0.031047384721496169 -0.025373697545555341 0.017768511212799803 -0.031346549182382624 -0.031415953051320958 0.0034815057327606523 0.028836220285454312 -0.011924598142212547 -0.01636820360429201 -0.032739003133355184 0.012230581863692684 -0.0023052437068316407 0.01530212279100439 -0.018283074055406748 0.030697980305855001 -0.0038683628800805481 -0.0070034360855867513 0.0052002615591240434 -0.03832041612417432 0.001923344766674869 -0.0055786066102608087
leaf_weight=21.130881801247597 13.956237584352492 42.823882877826691 13.436411648988726 171.59238131344318 6.4614580273628226 7.4777005910873404 6.4864182770252219 8.4863182455301267 6.9711111634969738 15.440498873591425 17.719050079584122 6.7246158868074417 4.9934035837650281 23.206397712230682 16.218211352825165 17.428587675094608 5.4786368012428275 37.922820568084717 9.9696590155363065 39.370712324976921 230.02201627194881 55.325623497366905 7.2357371151447323 11.941014662384989 10.221124604344366 4.9866742789745322 5.9792086184024802 7.7314141839742687 204.46755042672157 14.213653922080992
leaf_count=85 56 172 54 688 26 30 26 34 28 62 71 27 20 93 65 70 22 152 40 158 923 222 29 48 41 20 24 31 820 57
internal_value=0 0.00370748 -0.00297464 -0.00440696 -0.00538099 0.00971875 -0.00594056 -0.0175253 0.0021286 0.00322404 -0.0148492 0.0141851 -0.0037441 -0.00449607 -0.0172549 0.00216032 0.0188711 -0.0111094 0.00102241 0.00202086 -0.000132418 0.010319 -1.38765e-05 0.00648996 0.0151478 0.0217251 -0.018871 -0.00318464 -0.00224162 -0.0184119
internal_weight=1045.42 465.472 579.948 521.941 496.787 58.0065 490.325 52.8956 422.648 397.958 24.6902 25.1544 11.718 437.43 39.4246 377.531 22.9072 44.4092 354.623 338.675 269.393 69.2819 36.8756 29.3979 22.1621 20.4272 15.9489 398.005 376.06 21.9451
internal_count=4194 1868 2326 2093 1992 233 1966 212 1696 1597 99 101 47 1754 158 1515 92 178 1423 1359 1081 278 148 118 89 82 64 1596 1508 88
is_linear=0
shrinkage=0.03


Tree=3
num_leaves=31
num_cat=0
split_feature=16 1 45 42 8 17 32 44 2 25 42 16 24 9 40 6 13 45 14 8 48 32 23 4 6 1 5 15 15 18
split_gain=12.1005 11.5621 11.0927 10.6227 10.0265 11.0663 9.25888 10.5193 9.55338 9.24776 9.04352 8.39596 9.67156 7.62104 8.59954 7.53908 7.9462 7.52405 7.50768 12.6298 7.35123 7.18903 7.13766 8.32224 7.1294 6.66504 6.46017 6.42928 5.51977 7.10173
threshold=0.16162134053381524 1.7519433615773246 -0.83081804405485793 3.5462361867940762 -0.87141789537467529 1.2930132870482651 -0.919212105893781 -0.213437382294102 1.5840397612632968 -0.37470981925787333 -0.081446569831172266 0.0095396253252719096 0.37683988598825896 -0.81020901198948436 -0.76057475775577943 -0.27453696546310841 -0.76563374101466997 -0.081376951037969339 1.2100049069630339 0.57488495316983979 -1.0726107677017851 0.16921309637139345 1.7232041937012543 1.0742538106208144 0.52606365218253137 -0.891140004082286 0.74053185582099623 -0.097600034334148808 -1.1940546938855261 -0.24128464482116849
decision_type=2 2 2 2 2 2 2 2 2 2 2 2 2 2 2 2 2 2 2 2 2 2 2 2 2 2 2 2 2 2
left_child=2 3 9 6 13 11 10 -8 22 -1 -2 18 17 -4 -15 16 -11 -13 28 -20 -17 -19 23 -9 26 -22 -3 -10 29 -6
right_child=1 24 4 -5 5 -7 7 8 27 15 -12 12 -14 14 -16 20 -18 21 19 -21 25 -23 -24 -25 -26 -27 -28 -29 -30 -31
leaf_value=0.024155587007433726 0.0063785327210756646 0.030201513199575467 0.028449165260051052 -0.027746838145490327 0.030091304899326588 0.031032281739788538 0.024680928610227044 0.004104666513606154 0.0030733061875474234 0.00094007084239475182 -0.034092847506540409 -0.027974413162133043 -0.044784281875559176 0.017322273591111215 -0.030540006400252881 -0.018508861599601946 -0.042504754922788261 0.024350447608462278 -0.03048060362937393 0.0033836216255963441 -0.0062097036200704564 -0.0095866444483759649 0.028137155899087017 -0.020374082760211108 -0.0051992414065040564 0.030385058951299098 -0.0031320772793860447 -0.026998458446742923 -0.0038944907864226553 -0.0072148746672779955
leaf_weight=22.083992063999176 7.9679699540138271 28.097014829516411 13.40676784515381 9.4803953766822797 8.9771724641323107 6.444150134921073 19.673650413751602 328.13413028419018 10.210029348731043 9.2112750113010389 10.725630193948744 14.237868964672087 8.4972071051597577 6.7167915403842926 4.9978529214858991 5.2396294772624996 5.2393804639577857 6.238686457276347 23.231243178248405 16.215727537870407 5.9858614057302502 23.951917663216591 9.6991363465785962 11.977120622992514 8.701788052916525 12.932536512613295 5.9706496745347968 14.697441905736921 378.60312978923321 7.7337948828935614
leaf_count=89 32 113 54 38 36 26 79 1317 41 37 43 57 34 27 20 21 21 25 93 65 24 96 39 48 35 52 24 59 1518 31
internal_value=0 0.0035997 -0.00288869 0.00206619 -0.00431454 -0.00526731 0.00282301 0.00382285 0.00265699 0.00913359 -0.017242 -0.00581562 -0.0170148 0.0137955 -0.00365736 7.24175e-05 -0.0163491 -0.0107688 -0.00440948 -0.0167462 0.010274 -0.00192173 0.0039555 0.00317664 0.018289 0.0189253 0.0243512 -0.0149129 -0.00313173 0.0132242
internal_weight=1045.28 465.335 579.945 422.566 519.252 494.131 413.085 394.392 374.718 60.6927 18.6936 487.687 52.9257 25.1214 11.7146 38.6087 14.4507 44.4285 434.761 39.447 24.158 30.1906 349.81 340.111 42.7695 18.9184 34.0677 24.9075 395.314 16.711
internal_count=4194 1868 2326 1696 2082 1981 1658 1583 1504 244 75 1955 212 101 47 155 58 178 1743 158 97 121 1404 1365 172 76 137 100 1585 67
is_linear=0
shrinkage=0.03


Tree=4
num_leaves=31
num_cat=0
split_feature=16 1 45 42 25 20 8 17 20 32 42 48 0 37 32 45 39 16 24 28 9 40 32 45 32 6 6 49 15 39
split_gain=11.3881 10.9188 10.4347 10.0411 9.49389 9.56069 9.42288 10.4835 8.9472 9.7841 8.54678 8.49019 12.4801 11.9384 8.09114 9.02845 8.68063 8.00076 9.17027 7.94124 7.23329 8.16952 7.14723 7.11284 6.81452 6.74849 6.60515 10.0306 8.02897 9.29383
threshold=0.16162134053381524 1.7519433615773246 -0.85230650544604214 3.5462361867940762 -0.37470981925787333 0.97693459595168353 -0.87141789537467529 1.2930132870482651 -0.86298847799349832 -0.919212105893781 -0.081446569831172266 -0.12270400422514462 -0.44974325054281 0.084274590173682259 0.50650669115385105 -0.081376951037969339 0.89981677488292189 0.0095396253252719096 0.37683988598825896 -0.2474362520727692 -0.81020901198948436 -0.76057475775577943 0.18348862597532392 -0.081376951037969339 0.16921309637139345 0.52606365218253137 -1.366429034962972 -0.40529077620912785 0.48579969247345889 1.0181150556808658
decision_type=2 2 2 2 2 2 2 2 2 2 2 2 2 2 2 2 2 2 2 2 2 2 2 2 2 2 2 2 2 2
left_child=2 3 4 8 -1 19 20 17 22 10 -10 14 -13 -14 16 -16 -11 26 23 -6 -4 -22 -2 -19 -25 -3 27 -8 -28 -30
right_child=1 25 6 -5 5 -7 7 -9 9 11 -12 12 13 -15 15 -17 -18 18 -20 -21 21 -23 -24 24 -26 -27 28 -29 29 -31
leaf_value=0.024739124882664554 -0.00054642728075080134 0.023687193251645724 0.027721844183704644 -0.02696990155239383 -0.0038283714313394101 -0.016825087526241879 -0.037434984508533296 0.030308846844428153 0.006210788095966163 0.021146017193313178 -0.033121038186753042 0.023464292262915534 -0.018930214285265572 0.0019603972661413069 -0.022062458411730417 0.0076988132848105593 -0.0085868786444423216 -0.027174796768758155 -0.043573023331967269 0.03205214338212399 0.016889128123092508 -0.029766568586258816 -0.03359298526979556 0.023745125896222692 -0.0093070222871285066 -0.0050576180926956791 -0.0014288667964179327 -0.0029318989880415393 -0.0067202281734146958 -0.035395862397682144
leaf_weight=21.038770765066147 13.961246833205225 34.000981241464615 13.372507855296137 9.4895540028810483 11.212168738245966 16.218551814556122 12.224499985575678 6.4241927415132514 7.9647359102964428 66.212891310453415 10.738252878189085 19.914344146847725 27.407602190971375 183.09365093708038 9.9648705273866636 54.787245705723763 9.4664732515811902 14.246392890810965 8.4991593509912473 9.4139340966939908 6.7081583440303802 4.999829560518263 9.4787517189979535 6.2313942313194302 23.961286157369614 8.7050420343875867 348.00473529100418 18.712677717208862 46.150876045227051 12.477472588419912
leaf_count=85 56 137 54 38 45 65 49 26 32 266 43 80 110 735 40 220 38 57 34 38 27 20 38 25 96 35 1395 75 185 50
internal_value=0 0.00349145 -0.00280374 0.00200169 0.00916306 -7.04842e-05 -0.0041514 -0.00506948 0.00273817 0.00384013 -0.0167541 0.00492909 0.00135633 -0.000822053 0.0107189 0.00280726 0.0173242 -0.00559965 -0.0165343 0.013134 0.0134208 -0.00357336 -0.0148604 -0.0104519 -0.00184674 0.0177777 -0.00423523 -0.0174046 -0.00318569 -0.0133646
internal_weight=1045.08 465.186 579.897 422.48 57.8834 36.8447 522.013 496.933 412.99 389.55 18.703 370.847 230.416 210.501 140.431 64.7521 75.6794 490.508 52.9382 20.6261 25.0805 11.708 23.44 44.4391 30.1927 42.706 437.57 30.9372 406.633 58.6283
internal_count=4194 1868 2326 1696 233 148 2093 1992 1658 1564 75 1489 925 845 564 260 304 1966 212 83 101 47 94 178 121 172 1754 124 1630 235
is_linear=0
shrinkage=0.03


Tree=5
num_leaves=31
num_cat=0
split_feature=16 3 1 45 42 20 7 11 31 23 8 26 4 1 4 41 31 48 48 20 32 18 49 40 28 36 6 6 9 40
split_gain=10.7145 11.033 10.772 9.87734 9.84448 9.00075 10.0005 8.97195 12.1463 9.87742 8.93819 8.33936 16.7146 10.951 13.3739 8.96033 8.80293 8.96532 9.9647 8.17049 7.48561 10.4012 8.0994 7.41023 7.02978 10.1829 7.02704 6.94785 6.86748 7.76343
threshold=0.16162134053381524 3.2175978541719306 1.7519433615773246 -0.83081804405485793 3.5462361867940762 -0.86298847799349832 1.3450522634808735 1.2313194139669097 0.30205617583081307 0.88102427725602317 -0.87141789537467529 -0.075207857552101701 -0.17991353757486617 -0.28893764119990034 -0.034324500237797866 -0.4602967623833229 -0.6084360031970667 -1.1009944290016709 -0.74040920200868887 1.0480012129377119 -0.089923589864258774 -1.2873400573391545 -0.42965030914809443 0.9730559809065179 0.4643285730699786 0.01589412717308587 -0.30267570543828121 0.52606365218253137 -0.81020901198948436 -0.76057475775577943
decision_type=2 2 2 2 2 2 2 2 2 2 2 2 2 2 2 2 2 2 2 2 2 2 2 2 2 2 2 2 2 2
left_child=3 2 4 19 5 -2 7 9 -9 -7 28 12 15 16 -15 -12 -13 -18 -19 26 22 -22 -17 -21 25 -16 -1 -4 -5 -30
right_child=1 -3 27 10 -6 6 -8 8 -10 -11 11 13 -14 14 24 20 17 18 -20 23 21 -23 -24 -25 -26 -27 -28 -29 29 -31
leaf_value=-0.00044415811943318686 -0.014453005306364251 -0.034711246101068939 0.02431110352062844 0.027021415590511761 -0.026224173939516187 0.0020232152515996119 0.019667364702310772 0.010910252093020578 -0.025870104459668083 0.016603073301587428 -0.021591575395292002 -0.036154052053816367 -0.0197106294055663 0.028491603646950282 0.022119660181244307 -0.02084935486701267 0.018926631550161315 -0.033436030597991363 -0.0037260125301543383 -0.030280919838571306 0.016339762270885478 -0.0035000776439493022 -0.00097509353335756765 0.0055810584429928358 -0.0078718597066784156 -0.0019423999033599967 0.026101237595000947 -0.0049199507791342122 0.01646850456113684 -0.029023936286683781
leaf_weight=13.383849188685415 23.451674565672874 5.7379453480243674 33.431076034903526 13.334065347909929 9.4949672222137433 269.22283279895782 33.794569402933121 12.194926828145979 20.197424203157425 48.76862695813179 21.21532341837883 8.4891801774501783 81.611210465431213 17.710144877433777 24.674378171563148 27.950164958834648 10.72149536013603 11.7308002859354 53.639613628387451 6.470712915062907 37.67084051668644 60.638327732682228 52.146939843893051 15.929220154881476 45.643868491053581 40.388713955879211 24.768830478191376 8.7080962061882001 6.698789969086647 4.9995131492614728
leaf_count=54 94 23 135 54 38 1081 136 49 81 196 85 34 327 71 99 112 43 47 215 26 151 243 209 64 183 162 100 35 27 20
internal_value=-2.051e-06 0.0033835 0.00394035 -0.00272352 0.00244976 0.00318755 0.00430691 0.0027651 -0.0120213 0.00431369 -0.00406782 -0.00496601 -0.00834866 -0.000467556 0.00502579 -0.0036135 -0.00880427 -0.00528469 -0.00952616 0.00863444 -0.00135047 0.00416007 -0.00811885 -0.0055016 0.00102358 0.00733413 0.0169391 0.0182269 0.0130601 -0.00349196
internal_weight=1044.82 465.002 459.264 579.816 417.125 407.63 384.178 350.384 32.3924 317.991 519.263 494.231 281.233 212.998 128.417 199.622 84.5811 76.0919 65.3704 60.5526 178.406 98.3092 80.0971 22.3999 110.707 65.0631 38.1527 42.1392 25.0324 11.6983
internal_count=4194 1868 1845 2326 1675 1637 1543 1407 130 1277 2082 1981 1127 854 515 800 339 305 262 244 715 394 321 90 444 261 154 170 101 47
is_linear=0
shrinkage=0.03


end of trees

feature_importances:
Column_45=12
Column_1=10
Column_16=10
Column_48=8
Column_6=7
Column_8=7
Column_20=7
Column_32=7
Column_40=7
Column_42=7
Column_3=6
Column_4=5
Column_9=5
Column_17=5
Column_18=5
Column_25=5
Column_31=5
Column_2=4
Column_5=4
Column_14=4
Column_23=4
Column_28=4
Column_10=3
Column_15=3
Column_24=3
Column_29=3
Column_37=3
Column_39=3
Column_41=3
Column_49=3
Column_0=2
Column_7=2
Column_13=2
Column_22=2
Column_35=2
Column_44=2
Column_11=1
Column_21=1
Column_26=1
Column_30=1
Column_36=1
Column_38=1

parameters:
[boosting: gbdt]
[objective: binary]
[metric: binary_logloss]
[tree_learner: serial]
[device_type: cpu]
[data_sample_strategy: bagging]
[data: ]
[valid: ]
[num_iterations: 500]
[learning_rate: 0.03]
[num_leaves: 31]
[num_threads: -1]
[seed: 42]
[deterministic: 0]
[force_col_wise: 0]
[force_row_wise: 0]
[histogram_pool_size: -1]
[max_depth: 8]
[min_data_in_leaf: 20]
[min_sum_hessian_in_leaf: 0.001]
[bagging_fraction: 0.8]
[pos_bagging_fraction: 1]
[neg_bagging_fraction: 1]
[bagging_freq: 0]
[bagging_seed: 400]
[bagging_by_query: 0]
[feature_fraction: 0.8]
[feature_fraction_bynode: 1]
[feature_fraction_seed: 30056]
[extra_trees: 0]
[extra_seed: 12879]
[early_stopping_round: 0]
[early_stopping_min_delta: 0]
[first_metric_only: 0]
[max_delta_step: 0]
[lambda_l1: 0.1]
[lambda_l2: 1]
[linear_lambda: 0]
[min_gain_to_split: 0]
[drop_rate: 0.1]
[max_drop: 50]
[skip_drop: 0.5]
[xgboost_dart_mode: 0]
[uniform_drop: 0]
[drop_seed: 17869]
[top_rate: 0.2]
[other_rate: 0.1]
[min_data_per_group: 100]
[max_cat_threshold: 32]
[cat_l2: 10]
[cat_smooth: 10]
[max_cat_to_onehot: 4]
[top_k: 20]
[monotone_constraints: ]
[monotone_constraints_method: basic]
[monotone_penalty: 0]
[feature_contri: ]
[forcedsplits_filename: ]
[refit_decay_rate: 0.9]
[cegb_tradeoff: 1]
[cegb_penalty_split: 0]
[cegb_penalty_feature_lazy: ]
[cegb_penalty_feature_coupled: ]
[path_smooth: 0]
[interaction_constraints: ]
[verbosity: -1]
[saved_feature_importance_type: 0]
[use_quantized_grad: 0]
[num_grad_quant_bins: 4]
[quant_train_renew_leaf: 0]
[stochastic_rounding: 1]
[linear_tree: 0]
[max_bin: 255]
[max_bin_by_feature: ]
[min_data_in_bin: 3]
[bin_construct_sample_cnt: 200000]
[data_random_seed: 175]
[is_enable_sparse: 1]
[enable_bundle: 1]
[use_missing: 1]
[zero_as_missing: 0]
[feature_pre_filter: 1]
[pre_partition: 0]
[two_round: 0]
[header: 0]
[label_column: ]
[weight_column: ]
[group_column: ]
[ignore_column: ]
[categorical_feature: ]
[forcedbins_filename: ]
[precise_float_parser: 0]
[parser_config_file: ]
[objective_seed: 16083]
[num_class: 1]
[is_unbalance: 0]
[scale_pos_weight: 1]
[sigmoid: 1]
[boost_from_average: 1]
[reg_sqrt: 0]
[alpha: 0.9]
[fair_c: 1]
[poisson_max_delta_step: 0.7]
[tweedie_variance_power: 1.5]
[lambdarank_truncation_level: 30]
[lambdarank_norm: 1]
[label_gain: ]
[lambdarank_position_bias_regularization: 0]
[eval_at: ]
[multi_error_top_k: 1]
[auc_mu_weights: ]
[num_machines: 1]
[local_listen_port: 12400]
[time_out: 120]
[machine_list_filename: ]
[machines: ]
[gpu_platform_id: -1]
[gpu_device_id: -1]
[gpu_use_dp: 0]
[num_gpu: 1]

end of parameters

pandas_categorical:null
